<?xml version="1.0"?>
<opencv_storage>
<cascade>
  <stageType>BOOST</stageType>
  <featureType>HAAR</featureType>
  <height>20</height>
  <width>20</width>
  <stageParams>
    <boostType>GAB</boostType>
    <minHitRate>9.9500000476837158e-01</minHitRate>
    <maxFalseAlarm>5.0000000000000000e-01</maxFalseAlarm>
    <weightTrimRate>9.4999999999999996e-01</weightTrimRate>
    <maxDepth>1</maxDepth>
    <maxWeakCount>100</maxWeakCount></stageParams>
  <featureParams>
    <maxCatCount>0</maxCatCount>
    <featSize>1</featSize>
    <mode>BASIC</mode></featureParams>
  <stageNum>17</stageNum>
  <stages>
    <!-- stage 0 -->
    <_>
      <maxWeakCount>3</maxWeakCount>
      <stageThreshold>-7.6246744394302368e-01</stageThreshold>
      <weakClassifiers>
        <_>
          <internalNodes>
            0 -1 75 3.2476671040058136e-02</internalNodes>
          <leafValues>
            -8.0784624814987183e-01 7.9297000169754028e-01</leafValues></_>
        <_>
          <internalNodes>
            0 -1 13 2.8083149343729019e-02</internalNodes>
          <leafValues>
            -6.2499630451202393e-01 8.1098890304565430e-01</leafValues></_>
        <_>
          <internalNodes>
            0 -1 103 1.0674031451344490e-02</internalNodes>
          <leafValues>
            -7.1741044521331787e-01 6.7037510871887207e-01</leafValues></_></weakClassifiers></_>
    <!-- stage 1 -->
    <_>
      <maxWeakCount>5</maxWeakCount>
      <stageThreshold>-1.4930769205093384e+00</stageThreshold>
      <weakClassifiers>
        <_>
          <internalNodes>
            0 -1 5 1.7512965947389603e-02</internalNodes>
          <leafValues>
            -6.4671099185943604e-01 7.7577579021453857e-01</leafValues></_>
        <_>
          <internalNodes>
            0 -1 102 -1.1673488654196262e-02</internalNodes>
          <leafValues>
            6.1371755599975586e-01 -6.6363376379013062e-01</leafValues></_>
        <_>
          <internalNodes>
            0 -1 64 2.7522645890712738e-02</internalNodes>
          <leafValues>
            -4.4365233182907104e-01 7.6430869102478027e-01</leafValues></_>
        <_>
          <internalNodes>
            0 -1 138 -6.5237386152148247e-03</internalNodes>
          <leafValues>
            4.8753279447555542e-01 -6.5260159969329834e-01</leafValues></_>
        <_>
          <internalNodes>
            0 -1 36 -1.0176494717597961e-02</internalNodes>
          <leafValues>
            5.3884243965148926e-01 -5.0896501541137695e-01</leafValues></_></weakClassifiers></_>
    <!-- stage 2 -->
    <_>
      <maxWeakCount>7</maxWeakCount>
      <stageThreshold>-1.4914677143096924e+00</stageThreshold>
      <weakClassifiers>
        <_>
          <internalNodes>
            0 -1 57 3.7233848124742508e-02</internalNodes>
          <leafValues>
            -6.4273506402969360e-01 6.9245284795761108e-01</leafValues></_>
        <_>
          <internalNodes>
            0 -1 14 4.7283686697483063e-02</internalNodes>
          <leafValues>
            -5.0469672679901123e-01 7.0940983295440674e-01</leafValues></_>
        <_>
          <internalNodes>
            0 -1 76 4.5277915894985199e-02</internalNodes>
          <leafValues>
            -7.4406576156616211e-01 5.2688264846801758e-01</leafValues></_>
        <_>
          <internalNodes>
            0 -1 50 1.0351663455367088e-02</internalNodes>
          <leafValues>
            -4.4500601291656494e-01 6.1874026060104370e-01</leafValues></_>
        <_>
          <internalNodes>
            0 -1 29 2.3537334054708481e-03</internalNodes>
          <leafValues>
            -7.3710346221923828e-01 3.3131131529808044e-01</leafValues></_>
        <_>
          <internalNodes>
            0 -1 7 2.6085902005434036e-02</internalNodes>
          <leafValues>
            -3.6864918470382690e-01 6.2275743484497070e-01</leafValues></_>
        <_>
          <internalNodes>
            0 -1 145 3.9561260491609573e-03</internalNodes>
          <leafValues>
            -3.7580609321594238e-01 6.0554146766662598e-01</leafValues></_></weakClassifiers></_>
    <!-- stage 3 -->
    <_>
      <maxWeakCount>6</maxWeakCount>
      <stageThreshold>-9.9212664365768433e-01</stageThreshold>
      <weakClassifiers>
        <_>
          <internalNodes>
            0 -1 33 1.6575597226619720e-02</internalNodes>
          <leafValues>
            -4.6521145105361938e-01 7.3925101757049561e-01</leafValues></_>
        <_>
          <internalNodes>
            0 -1 146 7.9395379871129990e-03</internalNodes>
          <leafValues>
            -5.0463330745697021e-01 6.2284433841705322e-01</leafValues></_>
        <_>
          <internalNodes>
            0 -1 62 -9.0539790689945221e-03</internalNodes>
          <leafValues>
            6.5295743942260742e-01 -4.4721174240112305e-01</leafValues></_>
        <_>
          <internalNodes>
            0 -1 89 -4.6305987052619457e-03</internalNodes>
          <leafValues>
            3.9726391434669495e-01 -6.5146362781524658e-01</leafValues></_>
        <_>
          <internalNodes>
            0 -1 53 6.9136861711740494e-03</internalNodes>
          <leafValues>
            -4.1219249367713928e-01 5.7569748163223267e-01</leafValues></_>
        <_>
          <internalNodes>
            0 -1 11 2.8229892253875732e-02</internalNodes>
          <leafValues>
            -4.3936359882354736e-01 5.0069606304168701e-01</leafValues></_></weakClassifiers></_>
    <!-- stage 4 -->
    <_>
      <maxWeakCount>8</maxWeakCount>
      <stageThreshold>-1.1509188413619995e+00</stageThreshold>
      <weakClassifiers>
        <_>
          <internalNodes>
            0 -1 123 1.8710313364863396e-02</internalNodes>
          <leafValues>
            -4.3902438879013062e-01 6.9756430387496948e-01</leafValues></_>
        <_>
          <internalNodes>
            0 -1 8 2.6660792529582977e-02</internalNodes>
          <leafValues>
            -4.5710054039955139e-01 5.8079516887664795e-01</leafValues></_>
        <_>
          <internalNodes>
            0 -1 12 3.7787076085805893e-02</internalNodes>
          <leafValues>
            -6.0683512687683105e-01 4.5409548282623291e-01</leafValues></_>
        <_>
          <internalNodes>
            0 -1 40 5.7152032852172852e-02</internalNodes>
          <leafValues>
            -7.5135552883148193e-01 3.5139980912208557e-01</leafValues></_>
        <_>
          <internalNodes>
            0 -1 97 5.6319287978112698e-03</internalNodes>
          <leafValues>
            -3.6283758282661438e-01 5.2779352664947510e-01</leafValues></_>
        <_>
          <internalNodes>
            0 -1 86 1.6056891530752182e-02</internalNodes>
          <leafValues>
            -3.2281690835952759e-01 7.1039676666259766e-01</leafValues></_>
        <_>
          <internalNodes>
            0 -1 63 -6.3369027338922024e-03</internalNodes>
          <leafValues>
            4.4903323054313660e-01 -4.5405688881874084e-01</leafValues></_>
        <_>
          <internalNodes>
            0 -1 130 1.5918017015792429e-04</internalNodes>
          <leafValues>
            2.3726268112659454e-01 -6.3133698701858521e-01</leafValues></_></weakClassifiers></_>
    <!-- stage 5 -->
    <_>
      <maxWeakCount>10</maxWeakCount>
      <stageThreshold>-9.9263799190521240e-01</stageThreshold>
      <weakClassifiers>
        <_>
          <internalNodes>
            0 -1 6 1.1381331831216812e-02</internalNodes>
          <leafValues>
            -3.4400001168251038e-01 6.8982458114624023e-01</leafValues></_>
        <_>
          <internalNodes>
            0 -1 158 -1.2424323707818985e-02</internalNodes>
          <leafValues>
            6.7557269334793091e-01 -2.7728521823883057e-01</leafValues></_>
        <_>
          <internalNodes>
            0 -1 133 2.4514477699995041e-03</internalNodes>
          <leafValues>
            -6.3856589794158936e-01 3.3266380429267883e-01</leafValues></_>
        <_>
          <internalNodes>
            0 -1 84 9.2279175296425819e-03</internalNodes>
          <leafValues>
            -3.4233343601226807e-01 5.5488103628158569e-01</leafValues></_>
        <_>
          <internalNodes>
            0 -1 10 -7.7947024255990982e-03</internalNodes>
          <leafValues>
            -8.8230729103088379e-01 1.7247213423252106e-01</leafValues></_>
        <_>
          <internalNodes>
            0 -1 28 -2.4978177621960640e-02</internalNodes>
          <leafValues>
            2.3671510815620422e-01 -6.7642271518707275e-01</leafValues></_>
        <_>
          <internalNodes>
            0 -1 54 4.0025673806667328e-02</internalNodes>
          <leafValues>
            1.8247844278812408e-01 -8.6267101764678955e-01</leafValues></_>
        <_>
          <internalNodes>
            0 -1 113 2.3844465613365173e-03</internalNodes>
          <leafValues>
            -3.5016667842864990e-01 4.6561017632484436e-01</leafValues></_>
        <_>
          <internalNodes>
            0 -1 56 -2.4600908160209656e-02</internalNodes>
          <leafValues>
            -9.0630406141281128e-01 1.4533033967018127e-01</leafValues></_>
        <_>
          <internalNodes>
            0 -1 23 9.1615440323948860e-03</internalNodes>
          <leafValues>
            -4.7764334082603455e-01 2.9663696885108948e-01</leafValues></_></weakClassifiers></_>
    <!-- stage 6 -->
    <_>
      <maxWeakCount>10</maxWeakCount>
      <stageThreshold>-9.4039857387542725e-01</stageThreshold>
      <weakClassifiers>
        <_>
          <internalNodes>
            0 -1 26 2.5329980999231339e-02</internalNodes>
          <leafValues>
            -2.9434448480606079e-01 6.8289190530776978e-01</leafValues></_>
        <_>
          <internalNodes>
            0 -1 136 -3.3396579325199127e-02</internalNodes>
          <leafValues>
            4.4908922910690308e-01 -5.4229313135147095e-01</leafValues></_>
        <_>
          <internalNodes>
            0 -1 98 -8.2303583621978760e-03</internalNodes>
          <leafValues>
            6.1969465017318726e-01 -3.1052538752555847e-01</leafValues></_>
        <_>
          <internalNodes>
            0 -1 17 3.9843201637268066e-02</internalNodes>
          <leafValues>
            -3.3368846774101257e-01 5.1079887151718140e-01</leafValues></_>
        <_>
          <internalNodes>
            0 -1 118 4.8071686178445816e-03</internalNodes>
          <leafValues>
            -2.7153980731964111e-01 6.9822525978088379e-01</leafValues></_>
        <_>
          <internalNodes>
            0 -1 147 2.9442622326314449e-03</internalNodes>
          <leafValues>
            -4.2454102635383606e-01 4.3685868382453918e-01</leafValues></_>
        <_>
          <internalNodes>
            0 -1 51 2.0624382887035608e-03</internalNodes>
          <leafValues>
            -4.7899171710014343e-01 3.4305009245872498e-01</leafValues></_>
        <_>
          <internalNodes>
            0 -1 80 4.6176398172974586e-03</internalNodes>
          <leafValues>
            -3.1415686011314392e-01 5.3387302160263062e-01</leafValues></_>
        <_>
          <internalNodes>
            0 -1 127 -6.4666016260161996e-04</internalNodes>
          <leafValues>
            2.3300713300704956e-01 -6.4494127035140991e-01</leafValues></_>
        <_>
          <internalNodes>
            0 -1 131 8.7411061394959688e-04</internalNodes>
          <leafValues>
            1.5403108298778534e-01 -8.1698638200759888e-01</leafValues></_></weakClassifiers></_>
    <!-- stage 7 -->
    <_>
      <maxWeakCount>11</maxWeakCount>
      <stageThreshold>-9.0586340427398682e-01</stageThreshold>
      <weakClassifiers>
        <_>
          <internalNodes>
            0 -1 14 5.2929118275642395e-02</internalNodes>
          <leafValues>
            -2.0691642165184021e-01 6.9177818298339844e-01</leafValues></_>
        <_>
          <internalNodes>
            0 -1 95 6.2791910022497177e-03</internalNodes>
          <leafValues>
            -2.9530355334281921e-01 6.2329548597335815e-01</leafValues></_>
        <_>
          <internalNodes>
            0 -1 31 -8.9037958532571793e-03</internalNodes>
          <leafValues>
            4.4238018989562988e-01 -4.5272651314735413e-01</leafValues></_>
        <_>
          <internalNodes>
            0 -1 96 8.4787262603640556e-03</internalNodes>
          <leafValues>
            -3.0717232823371887e-01 5.6982409954071045e-01</leafValues></_>
        <_>
          <internalNodes>
            0 -1 2 4.8519689589738846e-02</internalNodes>
          <leafValues>
            -3.9170277118682861e-01 4.0076020359992981e-01</leafValues></_>
        <_>
          <internalNodes>
            0 -1 155 -1.7164666205644608e-02</internalNodes>
          <leafValues>
            6.6459840536117554e-01 -2.3686443269252777e-01</leafValues></_>
        <_>
          <internalNodes>
            0 -1 115 1.9500158959999681e-03</internalNodes>
          <leafValues>
            -5.7157671451568604e-01 2.6883527636528015e-01</leafValues></_>
        <_>
          <internalNodes>
            0 -1 125 -1.6410528041888028e-04</internalNodes>
          <leafValues>
            -6.9748187065124512e-01 1.5017101168632507e-01</leafValues></_>
        <_>
          <internalNodes>
            0 -1 137 -3.1024650670588017e-03</internalNodes>
          <leafValues>
            1.8599827587604523e-01 -6.8385279178619385e-01</leafValues></_>
        <_>
          <internalNodes>
            0 -1 18 2.2536026313900948e-02</internalNodes>
          <leafValues>
            -4.0159225463867188e-01 3.0412012338638306e-01</leafValues></_>
        <_>
          <internalNodes>
            0 -1 67 2.8541415929794312e-02</internalNodes>
          <leafValues>
            1.4222335815429688e-01 -8.7174463272094727e-01</leafValues></_></weakClassifiers></_>
    <!-- stage 8 -->
    <_>
      <maxWeakCount>11</maxWeakCount>
      <stageThreshold>-1.2478994131088257e+00</stageThreshold>
      <weakClassifiers>
        <_>
          <internalNodes>
            0 -1 34 3.8764872588217258e-03</internalNodes>
          <leafValues>
            -4.5919370651245117e-01 5.8655357360839844e-01</leafValues></_>
        <_>
          <internalNodes>
            0 -1 146 9.2627536505460739e-03</internalNodes>
          <leafValues>
            -4.6321716904640198e-01 4.5438188314437866e-01</leafValues></_>
        <_>
          <internalNodes>
            0 -1 101 2.9306763317435980e-03</internalNodes>
          <leafValues>
            -4.0495264530181885e-01 4.5800334215164185e-01</leafValues></_>
        <_>
          <internalNodes>
            0 -1 140 1.0597011714708060e-04</internalNodes>
          <leafValues>
            2.4454510211944580e-01 -7.1396458148956299e-01</leafValues></_>
        <_>
          <internalNodes>
            0 -1 68 4.3441494926810265e-03</internalNodes>
          <leafValues>
            1.9965477287769318e-01 -7.4177658557891846e-01</leafValues></_>
        <_>
          <internalNodes>
            0 -1 22 3.8167957216501236e-02</internalNodes>
          <leafValues>
            -7.7649152278900146e-01 1.9122095406055450e-01</leafValues></_>
        <_>
          <internalNodes>
            0 -1 15 1.6923191025853157e-02</internalNodes>
          <leafValues>
            -6.3061177730560303e-01 1.8396829068660736e-01</leafValues></_>
        <_>
          <internalNodes>
            0 -1 112 2.3909145966172218e-03</internalNodes>
          <leafValues>
            -3.0072641372680664e-01 4.7806879878044128e-01</leafValues></_>
        <_>
          <internalNodes>
            0 -1 92 8.2286223769187927e-03</internalNodes>
          <leafValues>
            -3.0142176151275635e-01 5.1101398468017578e-01</leafValues></_>
        <_>
          <internalNodes>
            0 -1 148 4.0195067413151264e-03</internalNodes>
          <leafValues>
            1.8673884868621826e-01 -8.5439574718475342e-01</leafValues></_>
        <_>
          <internalNodes>
            0 -1 151 8.2887187600135803e-03</internalNodes>
          <leafValues>
            -2.5647661089897156e-01 5.4644292593002319e-01</leafValues></_></weakClassifiers></_>
    <!-- stage 9 -->
    <_>
      <maxWeakCount>10</maxWeakCount>
      <stageThreshold>-1.2832832336425781e+00</stageThreshold>
      <weakClassifiers>
        <_>
          <internalNodes>
            0 -1 70 -5.5768312886357307e-03</internalNodes>
          <leafValues>
            5.2566677331924438e-01 -6.0729312896728516e-01</leafValues></_>
        <_>
          <internalNodes>
            0 -1 43 -7.9042240977287292e-03</internalNodes>
          <leafValues>
            5.3368055820465088e-01 -3.3640608191490173e-01</leafValues></_>
        <_>
          <internalNodes>
            0 -1 4 9.1998070478439331e-02</internalNodes>
          <leafValues>
            -4.4583326578140259e-01 4.0279504656791687e-01</leafValues></_>
        <_>
          <internalNodes>
            0 -1 144 1.9187274156138301e-03</internalNodes>
          <leafValues>
            -4.2561003565788269e-01 4.2006540298461914e-01</leafValues></_>
        <_>
          <internalNodes>
            0 -1 141 -2.3516648798249662e-04</internalNodes>
          <leafValues>
            -6.6437679529190063e-01 2.5654536485671997e-01</leafValues></_>
        <_>
          <internalNodes>
            0 -1 73 3.7950314581394196e-03</internalNodes>
          <leafValues>
            -3.5047107934951782e-01 4.7753110527992249e-01</leafValues></_>
        <_>
          <internalNodes>
            0 -1 117 1.9200366295990534e-05</internalNodes>
          <leafValues>
            -5.5096083879470825e-01 3.2061851024627686e-01</leafValues></_>
        <_>
          <internalNodes>
            0 -1 44 1.1370121501386166e-02</internalNodes>
          <leafValues>
            -7.9438877105712891e-01 1.3873234391212463e-01</leafValues></_>
        <_>
          <internalNodes>
            0 -1 116 -3.2546577858738601e-04</internalNodes>
          <leafValues>
            -7.8722071647644043e-01 1.3821071386337280e-01</leafValues></_>
        <_>
          <internalNodes>
            0 -1 24 3.0624544247984886e-02</internalNodes>
          <leafValues>
            -2.3315706849098206e-01 6.6893726587295532e-01</leafValues></_></weakClassifiers></_>
    <!-- stage 10 -->
    <_>
      <maxWeakCount>11</maxWeakCount>
      <stageThreshold>-1.2588098049163818e+00</stageThreshold>
      <weakClassifiers>
        <_>
          <internalNodes>
            0 -1 128 -1.5565569628961384e-04</internalNodes>
          <leafValues>
            -4.5297297835350037e-01 5.5541986227035522e-01</leafValues></_>
        <_>
          <internalNodes>
            0 -1 85 1.0649986565113068e-02</internalNodes>
          <leafValues>
            -3.3344316482543945e-01 6.0450291633605957e-01</leafValues></_>
        <_>
          <internalNodes>
            0 -1 88 6.0292324051260948e-03</internalNodes>
          <leafValues>
            -3.4771901369094849e-01 5.1498448848724365e-01</leafValues></_>
        <_>
          <internalNodes>
            0 -1 128 1.1612866364885122e-04</internalNodes>
          <leafValues>
            2.5241082906723022e-01 -6.9051861763000488e-01</leafValues></_>
        <_>
          <internalNodes>
            0 -1 49 -8.5291825234889984e-03</internalNodes>
          <leafValues>
            3.6247929930686951e-01 -4.5771387219429016e-01</leafValues></_>
        <_>
          <internalNodes>
            0 -1 14 6.3107311725616455e-02</internalNodes>
          <leafValues>
            -3.4471464157104492e-01 4.2992368340492249e-01</leafValues></_>
        <_>
          <internalNodes>
            0 -1 105 6.5518054179847240e-03</internalNodes>
          <leafValues>
            -2.8603884577751160e-01 6.1382955312728882e-01</leafValues></_>
        <_>
          <internalNodes>
            0 -1 109 8.6088180541992188e-03</internalNodes>
          <leafValues>
            -1.9507989287376404e-01 6.2168943881988525e-01</leafValues></_>
        <_>
          <internalNodes>
            0 -1 60 1.0422583436593413e-03</internalNodes>
          <leafValues>
            -3.0068454146385193e-01 4.2032831907272339e-01</leafValues></_>
        <_>
          <internalNodes>
            0 -1 59 5.6560384109616280e-03</internalNodes>
          <leafValues>
            -2.6531529426574707e-01 4.9464792013168335e-01</leafValues></_>
        <_>
          <internalNodes>
            0 -1 156 8.4451269358396530e-03</internalNodes>
          <leafValues>
            -2.1566849946975708e-01 6.1367189884185791e-01</leafValues></_></weakClassifiers></_>
    <!-- stage 11 -->
    <_>
      <maxWeakCount>11</maxWeakCount>
      <stageThreshold>-8.8305264711380005e-01</stageThreshold>
      <weakClassifiers>
        <_>
          <internalNodes>
            0 -1 42 -7.1811284869909286e-03</internalNodes>
          <leafValues>
            5.7631999254226685e-01 -3.7302324175834656e-01</leafValues></_>
        <_>
          <internalNodes>
            0 -1 78 -8.6640641093254089e-03</internalNodes>
          <leafValues>
            3.2309445738792419e-01 -5.8966737985610962e-01</leafValues></_>
        <_>
          <internalNodes>
            0 -1 32 4.1817873716354370e-02</internalNodes>
          <leafValues>
            -3.1842777132987976e-01 5.2107107639312744e-01</leafValues></_>
        <_>
          <internalNodes>
            0 -1 61 8.7185185402631760e-03</internalNodes>
          <leafValues>
            -3.1661191582679749e-01 4.5555022358894348e-01</leafValues></_>
        <_>
          <internalNodes>
            0 -1 129 1.0571578604867682e-04</internalNodes>
          <leafValues>
            1.7121511697769165e-01 -6.8403011560440063e-01</leafValues></_>
        <_>
          <internalNodes>
            0 -1 134 1.8703166861087084e-03</internalNodes>
          <leafValues>
            -2.9162198305130005e-01 4.9194040894508362e-01</leafValues></_>
        <_>
          <internalNodes>
            0 -1 132 1.3904510997235775e-03</internalNodes>
          <leafValues>
            -2.8245094418525696e-01 4.6681863069534302e-01</leafValues></_>
        <_>
          <internalNodes>
            0 -1 104 -1.9683013670146465e-04</internalNodes>
          <leafValues>
            -5.7134914398193359e-01 2.2367998957633972e-01</leafValues></_>
        <_>
          <internalNodes>
            0 -1 91 8.3205644041299820e-03</internalNodes>
          <leafValues>
            -2.9497733712196350e-01 4.2197284102439880e-01</leafValues></_>
        <_>
          <internalNodes>
            0 -1 39 5.8810692280530930e-03</internalNodes>
          <leafValues>
            -4.4096279144287109e-01 2.7377870678901672e-01</leafValues></_>
        <_>
          <internalNodes>
            0 -1 135 6.9166272878646851e-03</internalNodes>
          <leafValues>
            1.5863832831382751e-01 -7.5717931985855103e-01</leafValues></_></weakClassifiers></_>
    <!-- stage 12 -->
    <_>
      <maxWeakCount>12</maxWeakCount>
      <stageThreshold>-7.7661156654357910e-01</stageThreshold>
      <weakClassifiers>
        <_>
          <internalNodes>
            0 -1 7 3.3315878361463547e-02</internalNodes>
          <leafValues>
            -3.8565021008253098e-02 7.5431472063064575e-01</leafValues></_>
        <_>
          <internalNodes>
            0 -1 160 -9.3523357063531876e-03</internalNodes>
          <leafValues>
            5.4191923141479492e-01 -2.8322368860244751e-01</leafValues></_>
        <_>
          <internalNodes>
            0 -1 122 2.7470132336020470e-03</internalNodes>
          <leafValues>
            -6.0015594959259033e-01 2.7670487761497498e-01</leafValues></_>
        <_>
          <internalNodes>
            0 -1 111 2.9829185456037521e-02</internalNodes>
          <leafValues>
            1.6172863543033600e-01 -8.4858125448226929e-01</leafValues></_>
        <_>
          <internalNodes>
            0 -1 108 2.7964673936367035e-03</internalNodes>
          <leafValues>
            -7.5863540172576904e-01 1.5294064581394196e-01</leafValues></_>
        <_>
          <internalNodes>
            0 -1 47 2.8553712181746960e-03</internalNodes>
          <leafValues>
            1.1386772245168686e-01 -8.1365448236465454e-01</leafValues></_>
        <_>
          <internalNodes>
            0 -1 55 6.7146867513656616e-02</internalNodes>
          <leafValues>
            1.2177560478448868e-01 -8.1253975629806519e-01</leafValues></_>
        <_>
          <internalNodes>
            0 -1 46 3.2485798001289368e-03</internalNodes>
          <leafValues>
            1.1760935932397842e-01 -8.2196962833404541e-01</leafValues></_>
        <_>
          <internalNodes>
            0 -1 46 -4.5413925545290112e-04</internalNodes>
          <leafValues>
            -5.7652151584625244e-01 1.9647024571895599e-01</leafValues></_>
        <_>
          <internalNodes>
            0 -1 110 1.0363109409809113e-02</internalNodes>
          <leafValues>
            7.2437554597854614e-02 -8.6899143457412720e-01</leafValues></_>
        <_>
          <internalNodes>
            0 -1 19 -1.8190579488873482e-02</internalNodes>
          <leafValues>
            -6.8275451660156250e-01 1.3029390573501587e-01</leafValues></_>
        <_>
          <internalNodes>
            0 -1 52 6.5378770232200623e-02</internalNodes>
          <leafValues>
            1.5308745205402374e-01 -7.0360684394836426e-01</leafValues></_></weakClassifiers></_>
    <!-- stage 13 -->
    <_>
      <maxWeakCount>13</maxWeakCount>
      <stageThreshold>-8.8132870197296143e-01</stageThreshold>
      <weakClassifiers>
        <_>
          <internalNodes>
            0 -1 69 4.6601905487477779e-03</internalNodes>
          <leafValues>
            -1.4707551896572113e-01 6.8019682168960571e-01</leafValues></_>
        <_>
          <internalNodes>
            0 -1 1 5.4099373519420624e-02</internalNodes>
          <leafValues>
            -4.2970308661460876e-01 4.0842932462692261e-01</leafValues></_>
        <_>
          <internalNodes>
            0 -1 143 1.5375718940049410e-03</internalNodes>
          <leafValues>
            -3.0479922890663147e-01 5.1020449399948120e-01</leafValues></_>
        <_>
          <internalNodes>
            0 -1 94 1.0526475496590137e-02</internalNodes>
          <leafValues>
            -2.0519487559795380e-01 6.3506346940994263e-01</leafValues></_>
        <_>
          <internalNodes>
            0 -1 83 -1.4239463955163956e-02</internalNodes>
          <leafValues>
            4.4553866982460022e-01 -3.0196955800056458e-01</leafValues></_>
        <_>
          <internalNodes>
            0 -1 30 4.4160308316349983e-03</internalNodes>
          <leafValues>
            -6.3154757022857666e-01 2.1604502201080322e-01</leafValues></_>
        <_>
          <internalNodes>
            0 -1 124 5.8055697008967400e-03</internalNodes>
          <leafValues>
            -5.5819618701934814e-01 1.7693711817264557e-01</leafValues></_>
        <_>
          <internalNodes>
            0 -1 71 3.6071062088012695e-02</internalNodes>
          <leafValues>
            -7.7560704946517944e-01 1.5667469799518585e-01</leafValues></_>
        <_>
          <internalNodes>
            0 -1 16 4.1911266744136810e-02</internalNodes>
          <leafValues>
            -1.9715665280818939e-01 6.1882245540618896e-01</leafValues></_>
        <_>
          <internalNodes>
            0 -1 37 -5.7098390534520149e-03</internalNodes>
          <leafValues>
            5.7738256454467773e-01 -2.2602441906929016e-01</leafValues></_>
        <_>
          <internalNodes>
            0 -1 157 1.1253200471401215e-02</internalNodes>
          <leafValues>
            -1.8934394419193268e-01 6.0915988683700562e-01</leafValues></_>
        <_>
          <internalNodes>
            0 -1 149 -4.1691651567816734e-03</internalNodes>
          <leafValues>
            -8.3640670776367188e-01 1.5073560178279877e-01</leafValues></_>
        <_>
          <internalNodes>
            0 -1 35 7.8925425186753273e-03</internalNodes>
          <leafValues>
            -2.1068407595157623e-01 5.6475001573562622e-01</leafValues></_></weakClassifiers></_>
    <!-- stage 14 -->
    <_>
      <maxWeakCount>13</maxWeakCount>
      <stageThreshold>-9.9686318635940552e-01</stageThreshold>
      <weakClassifiers>
        <_>
          <internalNodes>
            0 -1 126 -1.7999965348280966e-04</internalNodes>
          <leafValues>
            -6.4796906709671021e-01 4.7108334302902222e-01</leafValues></_>
        <_>
          <internalNodes>
            0 -1 100 2.8743762522935867e-03</internalNodes>
          <leafValues>
            -2.9830750823020935e-01 5.0837957859039307e-01</leafValues></_>
        <_>
          <internalNodes>
            0 -1 9 2.1709658205509186e-02</internalNodes>
          <leafValues>
            -4.4597476720809937e-01 3.0192080140113831e-01</leafValues></_>
        <_>
          <internalNodes>
            0 -1 3 9.4536587595939636e-02</internalNodes>
          <leafValues>
            -3.6462491750717163e-01 3.6137360334396362e-01</leafValues></_>
        <_>
          <internalNodes>
            0 -1 45 3.0049672350287437e-03</internalNodes>
          <leafValues>
            -6.7880368232727051e-01 1.8543547391891479e-01</leafValues></_>
        <_>
          <internalNodes>
            0 -1 154 -1.0316637344658375e-02</internalNodes>
          <leafValues>
            4.9070698022842407e-01 -2.7840876579284668e-01</leafValues></_>
        <_>
          <internalNodes>
            0 -1 21 -4.7300767153501511e-02</internalNodes>
          <leafValues>
            -7.7744746208190918e-01 1.3757099211215973e-01</leafValues></_>
        <_>
          <internalNodes>
            0 -1 48 5.5169137194752693e-03</internalNodes>
          <leafValues>
            -2.2684997320175171e-01 5.3723967075347900e-01</leafValues></_>
        <_>
          <internalNodes>
            0 -1 90 -1.4393627643585205e-02</internalNodes>
          <leafValues>
            4.9956834316253662e-01 -2.3308411240577698e-01</leafValues></_>
        <_>
          <internalNodes>
            0 -1 152 3.3665057271718979e-03</internalNodes>
          <leafValues>
            1.6175591945648193e-01 -7.7730488777160645e-01</leafValues></_>
        <_>
          <internalNodes>
            0 -1 72 4.4258348643779755e-03</internalNodes>
          <leafValues>
            -2.6113161444664001e-01 4.5127034187316895e-01</leafValues></_>
        <_>
          <internalNodes>
            0 -1 153 4.3215546756982803e-03</internalNodes>
          <leafValues>
            -1.7984358966350555e-01 5.7518833875656128e-01</leafValues></_>
        <_>
          <internalNodes>
            0 -1 58 3.9784465916454792e-03</internalNodes>
          <leafValues>
            -2.0968283712863922e-01 4.8141896724700928e-01</leafValues></_></weakClassifiers></_>
    <!-- stage 15 -->
    <_>
      <maxWeakCount>16</maxWeakCount>
      <stageThreshold>-1.1308137178421021e+00</stageThreshold>
      <weakClassifiers>
        <_>
          <internalNodes>
            0 -1 114 5.3619788959622383e-03</internalNodes>
          <leafValues>
            -6.2974685430526733e-01 5.0392377376556396e-01</leafValues></_>
        <_>
          <internalNodes>
            0 -1 38 -1.5045917592942715e-02</internalNodes>
          <leafValues>
            5.9245520830154419e-01 -2.7414798736572266e-01</leafValues></_>
        <_>
          <internalNodes>
            0 -1 113 2.2866674698889256e-03</internalNodes>
          <leafValues>
            -3.2428225874900818e-01 4.1586688160896301e-01</leafValues></_>
        <_>
          <internalNodes>
            0 -1 27 1.4137646940071136e-04</internalNodes>
          <leafValues>
            2.4288108944892883e-01 -5.3543865680694580e-01</leafValues></_>
        <_>
          <internalNodes>
            0 -1 119 -2.5233416818082333e-03</internalNodes>
          <leafValues>
            -6.7773771286010742e-01 1.7123334109783173e-01</leafValues></_>
        <_>
          <internalNodes>
            0 -1 142 9.1057484969496727e-03</internalNodes>
          <leafValues>
            -1.7760746181011200e-01 7.6570051908493042e-01</leafValues></_>
        <_>
          <internalNodes>
            0 -1 20 3.4757263958454132e-02</internalNodes>
          <leafValues>
            1.6404309868812561e-01 -7.3302161693572998e-01</leafValues></_>
        <_>
          <internalNodes>
            0 -1 150 -8.5469298064708710e-03</internalNodes>
          <leafValues>
            5.5964702367782593e-01 -2.1949559450149536e-01</leafValues></_>
        <_>
          <internalNodes>
            0 -1 66 -1.0287207551300526e-02</internalNodes>
          <leafValues>
            -7.5507581233978271e-01 1.8634587526321411e-01</leafValues></_>
        <_>
          <internalNodes>
            0 -1 107 7.2597172111272812e-03</internalNodes>
          <leafValues>
            -2.5824421644210815e-01 4.7846946120262146e-01</leafValues></_>
        <_>
          <internalNodes>
            0 -1 81 4.0412317030131817e-03</internalNodes>
          <leafValues>
            1.8219643831253052e-01 -6.9652229547500610e-01</leafValues></_>
        <_>
          <internalNodes>
            0 -1 65 -2.2871654480695724e-02</internalNodes>
          <leafValues>
            8.2939594984054565e-01 -1.4791767299175262e-01</leafValues></_>
        <_>
          <internalNodes>
            0 -1 41 1.4166304841637611e-02</internalNodes>
          <leafValues>
            1.8004757165908813e-01 -6.6867327690124512e-01</leafValues></_>
        <_>
          <internalNodes>
            0 -1 87 8.6481065955013037e-04</internalNodes>
          <leafValues>
            -5.4357045888900757e-01 1.7535130679607391e-01</leafValues></_>
        <_>
          <internalNodes>
            0 -1 106 1.0955771431326866e-02</internalNodes>
          <leafValues>
            1.5036152303218842e-01 -7.7065634727478027e-01</leafValues></_>
        <_>
          <internalNodes>
            0 -1 99 2.1937977522611618e-02</internalNodes>
          <leafValues>
            1.1494781821966171e-01 -7.2931712865829468e-01</leafValues></_></weakClassifiers></_>
    <!-- stage 16 -->
    <_>
      <maxWeakCount>14</maxWeakCount>
      <stageThreshold>-8.2173037528991699e-01</stageThreshold>
      <weakClassifiers>
        <_>
          <internalNodes>
            0 -1 34 4.9416716210544109e-03</internalNodes>
          <leafValues>
            -3.7319588661193848e-01 5.5584412813186646e-01</leafValues></_>
        <_>
          <internalNodes>
            0 -1 159 -1.4144316315650940e-02</internalNodes>
          <leafValues>
            6.4960300922393799e-01 -2.3661135137081146e-01</leafValues></_>
        <_>
          <internalNodes>
            0 -1 126 3.7275830982252955e-04</internalNodes>
          <leafValues>
            3.0783197283744812e-01 -5.5030667781829834e-01</leafValues></_>
        <_>
          <internalNodes>
            0 -1 113 1.3356950366869569e-03</internalNodes>
          <leafValues>
            -4.3371859192848206e-01 3.3585017919540405e-01</leafValues></_>
        <_>
          <internalNodes>
            0 -1 74 2.0993782673031092e-03</internalNodes>
          <leafValues>
            -7.2384548187255859e-01 1.6321797668933868e-01</leafValues></_>
        <_>
          <internalNodes>
            0 -1 25 4.9139294773340225e-02</internalNodes>
          <leafValues>
            -2.1122714877128601e-01 7.5307470560073853e-01</leafValues></_>
        <_>
          <internalNodes>
            0 -1 0 1.0085348039865494e-02</internalNodes>
          <leafValues>
            -1.9757194817066193e-01 5.5115002393722534e-01</leafValues></_>
        <_>
          <internalNodes>
            0 -1 82 -2.2791506489738822e-04</internalNodes>
          <leafValues>
            3.4423264861106873e-01 -3.5126367211341858e-01</leafValues></_>
        <_>
          <internalNodes>
            0 -1 139 -9.6039264462888241e-05</internalNodes>
          <leafValues>
            -7.1140521764755249e-01 1.5790280699729919e-01</leafValues></_>
        <_>
          <internalNodes>
            0 -1 120 -5.7593891397118568e-03</internalNodes>
          <leafValues>
            -6.3909512758255005e-01 1.5110115706920624e-01</leafValues></_>
        <_>
          <internalNodes>
            0 -1 121 6.1470647342503071e-03</internalNodes>
          <leafValues>
            1.2320756912231445e-01 -8.1851720809936523e-01</leafValues></_>
        <_>
          <internalNodes>
            0 -1 77 2.8853900730609894e-03</internalNodes>
          <leafValues>
            -2.7207538485527039e-01 4.7040572762489319e-01</leafValues></_>
        <_>
          <internalNodes>
            0 -1 93 -1.9035413861274719e-02</internalNodes>
          <leafValues>
            -7.4519759416580200e-01 1.6864776611328125e-01</leafValues></_>
        <_>
          <internalNodes>
            0 -1 79 2.5079792831093073e-03</internalNodes>
          <leafValues>
            -3.3372959494590759e-01 3.5583606362342834e-01</leafValues></_></weakClassifiers></_></stages>
  <features>
    <_>
      <rects>
        <_>
          0 2 2 14 -1.</_>
        <_>
          1 2 1 14 2.</_></rects>
      <tilted>0</tilted></_>
    <_>
      <rects>
        <_>
          0 2 6 17 -1.</_>
        <_>
          3 2 3 17 2.</_></rects>
      <tilted>0</tilted></_>
    <_>
      <rects>
        <_>
          0 3 6 11 -1.</_>
        <_>
          3 3 3 11 2.</_></rects>
      <tilted>0</tilted></_>
    <_>
      <rects>
        <_>
          0 6 8 9 -1.</_>
        <_>
          4 6 4 9 2.</_></rects>
      <tilted>0</tilted></_>
    <_>
      <rects>
        <_>
          0 6 10 10 -1.</_>
        <_>
          5 6 5 10 2.</_></rects>
      <tilted>0</tilted></_>
    <_>
      <rects>
        <_>
          1 8 6 5 -1.</_>
        <_>
          4 8 3 5 2.</_></rects>
      <tilted>0</tilted></_>
    <_>
      <rects>
        <_>
          1 10 9 1 -1.</_>
        <_>
          4 10 3 1 3.</_></rects>
      <tilted>0</tilted></_>
    <_>
      <rects>
        <_>
          2 9 6 3 -1.</_>
        <_>
          4 9 2 3 3.</_></rects>
      <tilted>0</tilted></_>
    <_>
      <rects>
        <_>
          3 0 14 4 -1.</_>
        <_>
          3 2 14 2 2.</_></rects>
      <tilted>0</tilted></_>
    <_>
      <rects>
        <_>
          3 0 17 6 -1.</_>
        <_>
          3 2 17 2 3.</_></rects>
      <tilted>0</tilted></_>
    <_>
      <rects>
        <_>
          3 5 12 10 -1.</_>
        <_>
          9 5 6 10 2.</_></rects>
      <tilted>0</tilted></_>
    <_>
      <rects>
        <_>
          3 6 4 8 -1.</_>
        <_>
          5 6 2 8 2.</_></rects>
      <tilted>0</tilted></_>
    <_>
      <rects>
        <_>
          3 6 6 8 -1.</_>
        <_>
          5 6 2 8 3.</_></rects>
      <tilted>0</tilted></_>
    <_>
      <rects>
        <_>
          3 7 6 6 -1.</_>
        <_>
          5 7 2 6 3.</_></rects>
      <tilted>0</tilted></_>
    <_>
      <rects>
        <_>
          3 7 6 7 -1.</_>
        <_>
          5 7 2 7 3.</_></rects>
      <tilted>0</tilted></_>
    <_>
      <rects>
        <_>
          3 10 12 6 -1.</_>
        <_>
          9 10 6 6 2.</_></rects>
      <tilted>0</tilted></_>
    <_>
      <rects>
        <_>
          3 11 6 3 -1.</_>
        <_>
          5 11 2 3 3.</_></rects>
      <tilted>0</tilted></_>
    <_>
      <rects>
        <_>
          4 0 12 4 -1.</_>
        <_>
          4 2 12 2 2.</_></rects>
      <tilted>0</tilted></_>
    <_>
      <rects>
        <_>
          4 0 12 6 -1.</_>
        <_>
          4 2 12 2 3.</_></rects>
      <tilted>0</tilted></_>
    <_>
      <rects>
        <_>
          4 4 12 9 -1.</_>
        <_>
          10 4 6 9 2.</_></rects>
      <tilted>0</tilted></_>
    <_>
      <rects>
        <_>
          4 4 7 9 -1.</_>
        <_>
          4 7 7 3 3.</_></rects>
      <tilted>0</tilted></_>
    <_>
      <rects>
        <_>
          4 4 12 9 -1.</_>
        <_>
          4 7 12 3 3.</_></rects>
      <tilted>0</tilted></_>
    <_>
      <rects>
        <_>
          4 4 12 15 -1.</_>
        <_>
          4 9 12 5 3.</_></rects>
      <tilted>0</tilted></_>
    <_>
      <rects>
        <_>
          4 5 2 11 -1.</_>
        <_>
          5 5 1 11 2.</_></rects>
      <tilted>0</tilted></_>
    <_>
      <rects>
        <_>
          4 8 6 3 -1.</_>
        <_>
          6 8 2 3 3.</_></rects>
      <tilted>0</tilted></_>
    <_>
      <rects>
        <_>
          4 8 6 4 -1.</_>
        <_>
          6 8 2 4 3.</_></rects>
      <tilted>0</tilted></_>
    <_>
      <rects>
        <_>
          4 9 6 8 -1.</_>
        <_>
          4 9 3 4 2.</_>
        <_>
          7 13 3 4 2.</_></rects>
      <tilted>0</tilted></_>
    <_>
      <rects>
        <_>
          4 11 2 2 -1.</_>
        <_>
          4 12 2 1 2.</_></rects>
      <tilted>0</tilted></_>
    <_>
      <rects>
        <_>
          4 12 11 6 -1.</_>
        <_>
          4 15 11 3 2.</_></rects>
      <tilted>0</tilted></_>
    <_>
      <rects>
        <_>
          4 13 8 3 -1.</_>
        <_>
          8 13 4 3 2.</_></rects>
      <tilted>0</tilted></_>
    <_>
      <rects>
        <_>
          4 14 8 2 -1.</_>
        <_>
          8 14 4 2 2.</_></rects>
      <tilted>0</tilted></_>
    <_>
      <rects>
        <_>
          4 18 12 2 -1.</_>
        <_>
          4 19 12 1 2.</_></rects>
      <tilted>0</tilted></_>
    <_>
      <rects>
        <_>
          5 0 9 4 -1.</_>
        <_>
          5 2 9 2 2.</_></rects>
      <tilted>0</tilted></_>
    <_>
      <rects>
        <_>
          5 3 1 15 -1.</_>
        <_>
          5 8 1 5 3.</_></rects>
      <tilted>0</tilted></_>
    <_>
      <rects>
        <_>
          5 4 1 8 -1.</_>
        <_>
          5 8 1 4 2.</_></rects>
      <tilted>0</tilted></_>
    <_>
      <rects>
        <_>
          5 4 4 4 -1.</_>
        <_>
          5 4 2 2 2.</_>
        <_>
          7 6 2 2 2.</_></rects>
      <tilted>0</tilted></_>
    <_>
      <rects>
        <_>
          5 4 4 8 -1.</_>
        <_>
          5 4 2 4 2.</_>
        <_>
          7 8 2 4 2.</_></rects>
      <tilted>0</tilted></_>
    <_>
      <rects>
        <_>
          5 5 4 2 -1.</_>
        <_>
          5 5 2 1 2.</_>
        <_>
          7 6 2 1 2.</_></rects>
      <tilted>0</tilted></_>
    <_>
      <rects>
        <_>
          5 5 4 4 -1.</_>
        <_>
          5 5 2 2 2.</_>
        <_>
          7 7 2 2 2.</_></rects>
      <tilted>0</tilted></_>
    <_>
      <rects>
        <_>
          5 6 3 9 -1.</_>
        <_>
          6 6 1 9 3.</_></rects>
      <tilted>0</tilted></_>
    <_>
      <rects>
        <_>
          5 7 15 8 -1.</_>
        <_>
          10 7 5 8 3.</_></rects>
      <tilted>0</tilted></_>
    <_>
      <rects>
        <_>
          5 7 12 3 -1.</_>
        <_>
          11 7 6 3 2.</_></rects>
      <tilted>0</tilted></_>
    <_>
      <rects>
        <_>
          5 8 1 10 -1.</_>
        <_>
          5 13 1 5 2.</_></rects>
      <tilted>0</tilted></_>
    <_>
      <rects>
        <_>
          5 8 6 1 -1.</_>
        <_>
          7 8 2 1 3.</_></rects>
      <tilted>0</tilted></_>
    <_>
      <rects>
        <_>
          5 8 15 5 -1.</_>
        <_>
          10 8 5 5 3.</_></rects>
      <tilted>0</tilted></_>
    <_>
      <rects>
        <_>
          5 8 10 6 -1.</_>
        <_>
          5 11 10 3 2.</_></rects>
      <tilted>0</tilted></_>
    <_>
      <rects>
        <_>
          5 9 2 3 -1.</_>
        <_>
          5 10 2 1 3.</_></rects>
      <tilted>0</tilted></_>
    <_>
      <rects>
        <_>
          5 10 2 3 -1.</_>
        <_>
          5 11 2 1 3.</_></rects>
      <tilted>0</tilted></_>
    <_>
      <rects>
        <_>
          5 14 4 2 -1.</_>
        <_>
          5 14 2 1 2.</_>
        <_>
          7 15 2 1 2.</_></rects>
      <tilted>0</tilted></_>
    <_>
      <rects>
        <_>
          5 18 9 2 -1.</_>
        <_>
          5 19 9 1 2.</_></rects>
      <tilted>0</tilted></_>
    <_>
      <rects>
        <_>
          6 1 9 2 -1.</_>
        <_>
          6 2 9 1 2.</_></rects>
      <tilted>0</tilted></_>
    <_>
      <rects>
        <_>
          6 3 1 6 -1.</_>
        <_>
          6 6 1 3 2.</_></rects>
      <tilted>0</tilted></_>
    <_>
      <rects>
        <_>
          6 4 10 13 -1.</_>
        <_>
          11 4 5 13 2.</_></rects>
      <tilted>0</tilted></_>
    <_>
      <rects>
        <_>
          6 4 7 2 -1.</_>
        <_>
          6 5 7 1 2.</_></rects>
      <tilted>0</tilted></_>
    <_>
      <rects>
        <_>
          6 5 8 8 -1.</_>
        <_>
          6 9 8 4 2.</_></rects>
      <tilted>0</tilted></_>
    <_>
      <rects>
        <_>
          6 5 8 10 -1.</_>
        <_>
          6 10 8 5 2.</_></rects>
      <tilted>0</tilted></_>
    <_>
      <rects>
        <_>
          6 6 8 10 -1.</_>
        <_>
          6 11 8 5 2.</_></rects>
      <tilted>0</tilted></_>
    <_>
      <rects>
        <_>
          6 9 8 9 -1.</_>
        <_>
          6 12 8 3 3.</_></rects>
      <tilted>0</tilted></_>
    <_>
      <rects>
        <_>
          6 10 3 3 -1.</_>
        <_>
          7 10 1 3 3.</_></rects>
      <tilted>0</tilted></_>
    <_>
      <rects>
        <_>
          6 12 6 3 -1.</_>
        <_>
          8 12 2 3 3.</_></rects>
      <tilted>0</tilted></_>
    <_>
      <rects>
        <_>
          6 14 2 2 -1.</_>
        <_>
          6 14 1 1 2.</_>
        <_>
          7 15 1 1 2.</_></rects>
      <tilted>0</tilted></_>
    <_>
      <rects>
        <_>
          6 14 7 3 -1.</_>
        <_>
          6 15 7 1 3.</_></rects>
      <tilted>0</tilted></_>
    <_>
      <rects>
        <_>
          6 18 9 2 -1.</_>
        <_>
          6 19 9 1 2.</_></rects>
      <tilted>0</tilted></_>
    <_>
      <rects>
        <_>
          6 18 11 2 -1.</_>
        <_>
          6 19 11 1 2.</_></rects>
      <tilted>0</tilted></_>
    <_>
      <rects>
        <_>
          7 0 9 4 -1.</_>
        <_>
          7 2 9 2 2.</_></rects>
      <tilted>0</tilted></_>
    <_>
      <rects>
        <_>
          7 2 6 3 -1.</_>
        <_>
          7 3 6 1 3.</_></rects>
      <tilted>0</tilted></_>
    <_>
      <rects>
        <_>
          7 4 6 3 -1.</_>
        <_>
          10 4 3 3 2.</_></rects>
      <tilted>0</tilted></_>
    <_>
      <rects>
        <_>
          7 4 8 5 -1.</_>
        <_>
          11 4 4 5 2.</_></rects>
      <tilted>0</tilted></_>
    <_>
      <rects>
        <_>
          7 5 4 6 -1.</_>
        <_>
          7 8 4 3 2.</_></rects>
      <tilted>0</tilted></_>
    <_>
      <rects>
        <_>
          7 6 4 4 -1.</_>
        <_>
          7 6 2 2 2.</_>
        <_>
          9 8 2 2 2.</_></rects>
      <tilted>0</tilted></_>
    <_>
      <rects>
        <_>
          7 6 4 9 -1.</_>
        <_>
          7 9 4 3 3.</_></rects>
      <tilted>0</tilted></_>
    <_>
      <rects>
        <_>
          7 6 12 12 -1.</_>
        <_>
          11 6 4 12 3.</_></rects>
      <tilted>0</tilted></_>
    <_>
      <rects>
        <_>
          7 9 2 3 -1.</_>
        <_>
          8 9 1 3 2.</_></rects>
      <tilted>0</tilted></_>
    <_>
      <rects>
        <_>
          7 9 3 3 -1.</_>
        <_>
          8 9 1 3 3.</_></rects>
      <tilted>0</tilted></_>
    <_>
      <rects>
        <_>
          7 9 8 3 -1.</_>
        <_>
          11 9 4 3 2.</_></rects>
      <tilted>0</tilted></_>
    <_>
      <rects>
        <_>
          7 9 12 5 -1.</_>
        <_>
          11 9 4 5 3.</_></rects>
      <tilted>0</tilted></_>
    <_>
      <rects>
        <_>
          7 9 12 6 -1.</_>
        <_>
          11 9 4 6 3.</_></rects>
      <tilted>0</tilted></_>
    <_>
      <rects>
        <_>
          7 10 3 1 -1.</_>
        <_>
          8 10 1 1 3.</_></rects>
      <tilted>0</tilted></_>
    <_>
      <rects>
        <_>
          7 11 10 4 -1.</_>
        <_>
          7 11 5 2 2.</_>
        <_>
          12 13 5 2 2.</_></rects>
      <tilted>0</tilted></_>
    <_>
      <rects>
        <_>
          7 12 6 2 -1.</_>
        <_>
          9 12 2 2 3.</_></rects>
      <tilted>0</tilted></_>
    <_>
      <rects>
        <_>
          7 14 2 3 -1.</_>
        <_>
          7 15 2 1 3.</_></rects>
      <tilted>0</tilted></_>
    <_>
      <rects>
        <_>
          7 15 3 3 -1.</_>
        <_>
          8 15 1 3 3.</_></rects>
      <tilted>0</tilted></_>
    <_>
      <rects>
        <_>
          7 18 6 1 -1.</_>
        <_>
          9 18 2 1 3.</_></rects>
      <tilted>0</tilted></_>
    <_>
      <rects>
        <_>
          7 18 8 2 -1.</_>
        <_>
          7 19 8 1 2.</_></rects>
      <tilted>0</tilted></_>
    <_>
      <rects>
        <_>
          8 1 5 2 -1.</_>
        <_>
          8 2 5 1 2.</_></rects>
      <tilted>0</tilted></_>
    <_>
      <rects>
        <_>
          8 4 4 3 -1.</_>
        <_>
          8 5 4 1 3.</_></rects>
      <tilted>0</tilted></_>
    <_>
      <rects>
        <_>
          8 4 5 3 -1.</_>
        <_>
          8 5 5 1 3.</_></rects>
      <tilted>0</tilted></_>
    <_>
      <rects>
        <_>
          8 5 8 6 -1.</_>
        <_>
          8 5 4 3 2.</_>
        <_>
          12 8 4 3 2.</_></rects>
      <tilted>0</tilted></_>
    <_>
      <rects>
        <_>
          8 8 4 3 -1.</_>
        <_>
          8 9 4 1 3.</_></rects>
      <tilted>0</tilted></_>
    <_>
      <rects>
        <_>
          8 11 8 4 -1.</_>
        <_>
          8 11 4 2 2.</_>
        <_>
          12 13 4 2 2.</_></rects>
      <tilted>0</tilted></_>
    <_>
      <rects>
        <_>
          8 15 4 3 -1.</_>
        <_>
          8 16 4 1 3.</_></rects>
      <tilted>0</tilted></_>
    <_>
      <rects>
        <_>
          8 16 5 3 -1.</_>
        <_>
          8 17 5 1 3.</_></rects>
      <tilted>0</tilted></_>
    <_>
      <rects>
        <_>
          9 2 3 3 -1.</_>
        <_>
          9 3 3 1 3.</_></rects>
      <tilted>0</tilted></_>
    <_>
      <rects>
        <_>
          9 3 3 9 -1.</_>
        <_>
          9 6 3 3 3.</_></rects>
      <tilted>0</tilted></_>
    <_>
      <rects>
        <_>
          9 3 8 2 -1.</_>
        <_>
          9 3 4 1 2.</_>
        <_>
          13 4 4 1 2.</_></rects>
      <tilted>0</tilted></_>
    <_>
      <rects>
        <_>
          9 4 2 3 -1.</_>
        <_>
          9 5 2 1 3.</_></rects>
      <tilted>0</tilted></_>
    <_>
      <rects>
        <_>
          9 5 3 3 -1.</_>
        <_>
          9 6 3 1 3.</_></rects>
      <tilted>0</tilted></_>
    <_>
      <rects>
        <_>
          9 5 4 3 -1.</_>
        <_>
          9 6 4 1 3.</_></rects>
      <tilted>0</tilted></_>
    <_>
      <rects>
        <_>
          9 6 3 3 -1.</_>
        <_>
          9 7 3 1 3.</_></rects>
      <tilted>0</tilted></_>
    <_>
      <rects>
        <_>
          9 6 6 6 -1.</_>
        <_>
          9 9 6 3 2.</_></rects>
      <tilted>0</tilted></_>
    <_>
      <rects>
        <_>
          9 7 2 2 -1.</_>
        <_>
          9 8 2 1 2.</_></rects>
      <tilted>0</tilted></_>
    <_>
      <rects>
        <_>
          9 8 2 3 -1.</_>
        <_>
          9 9 2 1 3.</_></rects>
      <tilted>0</tilted></_>
    <_>
      <rects>
        <_>
          9 9 8 6 -1.</_>
        <_>
          9 9 4 3 2.</_>
        <_>
          13 12 4 3 2.</_></rects>
      <tilted>0</tilted></_>
    <_>
      <rects>
        <_>
          9 11 4 6 -1.</_>
        <_>
          9 13 4 2 3.</_></rects>
      <tilted>0</tilted></_>
    <_>
      <rects>
        <_>
          9 13 3 1 -1.</_>
        <_>
          10 13 1 1 3.</_></rects>
      <tilted>0</tilted></_>
    <_>
      <rects>
        <_>
          9 16 2 3 -1.</_>
        <_>
          9 17 2 1 3.</_></rects>
      <tilted>0</tilted></_>
    <_>
      <rects>
        <_>
          10 2 1 9 -1.</_>
        <_>
          10 5 1 3 3.</_></rects>
      <tilted>0</tilted></_>
    <_>
      <rects>
        <_>
          10 3 6 2 -1.</_>
        <_>
          10 3 3 1 2.</_>
        <_>
          13 4 3 1 2.</_></rects>
      <tilted>0</tilted></_>
    <_>
      <rects>
        <_>
          10 3 3 12 -1.</_>
        <_>
          10 9 3 6 2.</_></rects>
      <tilted>0</tilted></_>
    <_>
      <rects>
        <_>
          10 3 8 2 -1.</_>
        <_>
          10 3 4 1 2.</_>
        <_>
          14 4 4 1 2.</_></rects>
      <tilted>0</tilted></_>
    <_>
      <rects>
        <_>
          10 4 2 6 -1.</_>
        <_>
          10 7 2 3 2.</_></rects>
      <tilted>0</tilted></_>
    <_>
      <rects>
        <_>
          10 5 2 14 -1.</_>
        <_>
          10 12 2 7 2.</_></rects>
      <tilted>0</tilted></_>
    <_>
      <rects>
        <_>
          10 7 1 3 -1.</_>
        <_>
          10 8 1 1 3.</_></rects>
      <tilted>0</tilted></_>
    <_>
      <rects>
        <_>
          10 8 1 3 -1.</_>
        <_>
          10 9 1 1 3.</_></rects>
      <tilted>0</tilted></_>
    <_>
      <rects>
        <_>
          10 8 4 6 -1.</_>
        <_>
          10 11 4 3 2.</_></rects>
      <tilted>0</tilted></_>
    <_>
      <rects>
        <_>
          10 11 1 6 -1.</_>
        <_>
          10 13 1 2 3.</_></rects>
      <tilted>0</tilted></_>
    <_>
      <rects>
        <_>
          10 13 3 1 -1.</_>
        <_>
          11 13 1 1 3.</_></rects>
      <tilted>0</tilted></_>
    <_>
      <rects>
        <_>
          10 13 5 3 -1.</_>
        <_>
          10 14 5 1 3.</_></rects>
      <tilted>0</tilted></_>
    <_>
      <rects>
        <_>
          10 16 3 2 -1.</_>
        <_>
          10 17 3 1 2.</_></rects>
      <tilted>0</tilted></_>
    <_>
      <rects>
        <_>
          11 0 1 14 -1.</_>
        <_>
          11 7 1 7 2.</_></rects>
      <tilted>0</tilted></_>
    <_>
      <rects>
        <_>
          11 1 3 6 -1.</_>
        <_>
          12 1 1 6 3.</_></rects>
      <tilted>0</tilted></_>
    <_>
      <rects>
        <_>
          11 4 3 3 -1.</_>
        <_>
          12 4 1 3 3.</_></rects>
      <tilted>0</tilted></_>
    <_>
      <rects>
        <_>
          11 9 1 6 -1.</_>
        <_>
          11 12 1 3 2.</_></rects>
      <tilted>0</tilted></_>
    <_>
      <rects>
        <_>
          11 9 2 9 -1.</_>
        <_>
          11 12 2 3 3.</_></rects>
      <tilted>0</tilted></_>
    <_>
      <rects>
        <_>
          11 10 2 6 -1.</_>
        <_>
          11 12 2 2 3.</_></rects>
      <tilted>0</tilted></_>
    <_>
      <rects>
        <_>
          11 11 2 3 -1.</_>
        <_>
          11 12 2 1 3.</_></rects>
      <tilted>0</tilted></_>
    <_>
      <rects>
        <_>
          11 12 2 1 -1.</_>
        <_>
          12 12 1 1 2.</_></rects>
      <tilted>0</tilted></_>
    <_>
      <rects>
        <_>
          11 12 4 5 -1.</_>
        <_>
          13 12 2 5 2.</_></rects>
      <tilted>0</tilted></_>
    <_>
      <rects>
        <_>
          11 13 2 1 -1.</_>
        <_>
          12 13 1 1 2.</_></rects>
      <tilted>0</tilted></_>
    <_>
      <rects>
        <_>
          11 13 2 2 -1.</_>
        <_>
          11 13 1 1 2.</_>
        <_>
          12 14 1 1 2.</_></rects>
      <tilted>0</tilted></_>
    <_>
      <rects>
        <_>
          11 13 2 3 -1.</_>
        <_>
          12 13 1 3 2.</_></rects>
      <tilted>0</tilted></_>
    <_>
      <rects>
        <_>
          11 13 5 2 -1.</_>
        <_>
          11 14 5 1 2.</_></rects>
      <tilted>0</tilted></_>
    <_>
      <rects>
        <_>
          12 5 2 2 -1.</_>
        <_>
          12 5 1 1 2.</_>
        <_>
          13 6 1 1 2.</_></rects>
      <tilted>0</tilted></_>
    <_>
      <rects>
        <_>
          12 5 1 10 -1.</_>
        <_>
          12 10 1 5 2.</_></rects>
      <tilted>0</tilted></_>
    <_>
      <rects>
        <_>
          12 6 2 2 -1.</_>
        <_>
          12 6 1 1 2.</_>
        <_>
          13 7 1 1 2.</_></rects>
      <tilted>0</tilted></_>
    <_>
      <rects>
        <_>
          12 7 6 3 -1.</_>
        <_>
          12 8 6 1 3.</_></rects>
      <tilted>0</tilted></_>
    <_>
      <rects>
        <_>
          12 8 8 5 -1.</_>
        <_>
          16 8 4 5 2.</_></rects>
      <tilted>0</tilted></_>
    <_>
      <rects>
        <_>
          12 11 4 6 -1.</_>
        <_>
          14 11 2 6 2.</_></rects>
      <tilted>0</tilted></_>
    <_>
      <rects>
        <_>
          12 11 6 2 -1.</_>
        <_>
          15 11 3 2 2.</_></rects>
      <tilted>0</tilted></_>
    <_>
      <rects>
        <_>
          12 12 1 3 -1.</_>
        <_>
          12 13 1 1 3.</_></rects>
      <tilted>0</tilted></_>
    <_>
      <rects>
        <_>
          12 12 2 2 -1.</_>
        <_>
          12 12 1 1 2.</_>
        <_>
          13 13 1 1 2.</_></rects>
      <tilted>0</tilted></_>
    <_>
      <rects>
        <_>
          12 12 3 2 -1.</_>
        <_>
          13 12 1 2 3.</_></rects>
      <tilted>0</tilted></_>
    <_>
      <rects>
        <_>
          12 15 4 2 -1.</_>
        <_>
          12 15 2 1 2.</_>
        <_>
          14 16 2 1 2.</_></rects>
      <tilted>0</tilted></_>
    <_>
      <rects>
        <_>
          13 6 2 2 -1.</_>
        <_>
          13 6 1 1 2.</_>
        <_>
          14 7 1 1 2.</_></rects>
      <tilted>0</tilted></_>
    <_>
      <rects>
        <_>
          13 6 2 4 -1.</_>
        <_>
          13 6 1 2 2.</_>
        <_>
          14 8 1 2 2.</_></rects>
      <tilted>0</tilted></_>
    <_>
      <rects>
        <_>
          13 7 3 2 -1.</_>
        <_>
          14 7 1 2 3.</_></rects>
      <tilted>0</tilted></_>
    <_>
      <rects>
        <_>
          13 7 3 7 -1.</_>
        <_>
          14 7 1 7 3.</_></rects>
      <tilted>0</tilted></_>
    <_>
      <rects>
        <_>
          13 8 3 2 -1.</_>
        <_>
          14 8 1 2 3.</_></rects>
      <tilted>0</tilted></_>
    <_>
      <rects>
        <_>
          13 8 3 3 -1.</_>
        <_>
          13 9 3 1 3.</_></rects>
      <tilted>0</tilted></_>
    <_>
      <rects>
        <_>
          13 10 4 3 -1.</_>
        <_>
          13 11 4 1 3.</_></rects>
      <tilted>0</tilted></_>
    <_>
      <rects>
        <_>
          13 14 4 4 -1.</_>
        <_>
          13 14 2 2 2.</_>
        <_>
          15 16 2 2 2.</_></rects>
      <tilted>0</tilted></_>
    <_>
      <rects>
        <_>
          14 8 3 5 -1.</_>
        <_>
          15 8 1 5 3.</_></rects>
      <tilted>0</tilted></_>
    <_>
      <rects>
        <_>
          14 10 2 3 -1.</_>
        <_>
          14 11 2 1 3.</_></rects>
      <tilted>0</tilted></_>
    <_>
      <rects>
        <_>
          15 4 2 4 -1.</_>
        <_>
          15 4 1 2 2.</_>
        <_>
          16 6 1 2 2.</_></rects>
      <tilted>0</tilted></_>
    <_>
      <rects>
        <_>
          15 4 2 8 -1.</_>
        <_>
          15 4 1 4 2.</_>
        <_>
          16 8 1 4 2.</_></rects>
      <tilted>0</tilted></_>
    <_>
      <rects>
        <_>
          15 7 3 6 -1.</_>
        <_>
          16 7 1 6 3.</_></rects>
      <tilted>0</tilted></_>
    <_>
      <rects>
        <_>
          15 10 2 6 -1.</_>
        <_>
          15 10 1 3 2.</_>
        <_>
          16 13 1 3 2.</_></rects>
      <tilted>0</tilted></_>
    <_>
      <rects>
        <_>
          16 8 3 4 -1.</_>
        <_>
          17 8 1 4 3.</_></rects>
      <tilted>0</tilted></_>
    <_>
      <rects>
        <_>
          18 3 2 13 -1.</_>
        <_>
          19 3 1 13 2.</_></rects>
      <tilted>0</tilted></_>
    <_>
      <rects>
        <_>
          18 6 2 9 -1.</_>
        <_>
          19 6 1 9 2.</_></rects>
      <tilted>0</tilted></_>
    <_>
      <rects>
        <_>
          18 6 2 10 -1.</_>
        <_>
          19 6 1 10 2.</_></rects>
      <tilted>0</tilted></_></features></cascade>
</opencv_storage>
