<?xml version="1.0"?>
<opencv_storage>
<cascade>
  <stageType>BOOST</stageType>
  <featureType>HAAR</featureType>
  <height>20</height>
  <width>20</width>
  <stageParams>
    <boostType>GAB</boostType>
    <minHitRate>9.9500000476837158e-01</minHitRate>
    <maxFalseAlarm>5.0000000000000000e-01</maxFalseAlarm>
    <weightTrimRate>9.4999999999999996e-01</weightTrimRate>
    <maxDepth>1</maxDepth>
    <maxWeakCount>100</maxWeakCount></stageParams>
  <featureParams>
    <maxCatCount>0</maxCatCount>
    <featSize>1</featSize>
    <mode>BASIC</mode></featureParams>
  <stageNum>12</stageNum>
  <stages>
    <!-- stage 0 -->
    <_>
      <maxWeakCount>2</maxWeakCount>
      <stageThreshold>-3.7777125835418701e-02</stageThreshold>
      <weakClassifiers>
        <_>
          <internalNodes>
            0 -1 18 1.2143155932426453e-01</internalNodes>
          <leafValues>
            -8.8945454359054565e-01 9.6186918020248413e-01</leafValues></_>
        <_>
          <internalNodes>
            0 -1 12 -6.0351220890879631e-03</internalNodes>
          <leafValues>
            8.5167741775512695e-01 -9.0019744634628296e-01</leafValues></_></weakClassifiers></_>
    <!-- stage 1 -->
    <_>
      <maxWeakCount>2</maxWeakCount>
      <stageThreshold>-8.7186165153980255e-02</stageThreshold>
      <weakClassifiers>
        <_>
          <internalNodes>
            0 -1 22 1.8243370950222015e-01</internalNodes>
          <leafValues>
            -8.6880469322204590e-01 9.4921582937240601e-01</leafValues></_>
        <_>
          <internalNodes>
            0 -1 29 2.5463584810495377e-02</internalNodes>
          <leafValues>
            -8.4971565008163452e-01 7.8161847591400146e-01</leafValues></_></weakClassifiers></_>
    <!-- stage 2 -->
    <_>
      <maxWeakCount>3</maxWeakCount>
      <stageThreshold>-7.7119916677474976e-01</stageThreshold>
      <weakClassifiers>
        <_>
          <internalNodes>
            0 -1 9 -2.5373578071594238e-02</internalNodes>
          <leafValues>
            9.1663509607315063e-01 -7.5761872529983521e-01</leafValues></_>
        <_>
          <internalNodes>
            0 -1 17 2.2646543383598328e-01</internalNodes>
          <leafValues>
            -7.4156934022903442e-01 8.5102993249893188e-01</leafValues></_>
        <_>
          <internalNodes>
            0 -1 40 -1.3136792927980423e-02</internalNodes>
          <leafValues>
            7.2798889875411987e-01 -7.7531158924102783e-01</leafValues></_></weakClassifiers></_>
    <!-- stage 3 -->
    <_>
      <maxWeakCount>3</maxWeakCount>
      <stageThreshold>-9.0512317419052124e-01</stageThreshold>
      <weakClassifiers>
        <_>
          <internalNodes>
            0 -1 8 -1.3592993840575218e-02</internalNodes>
          <leafValues>
            8.8170462846755981e-01 -7.9066264629364014e-01</leafValues></_>
        <_>
          <internalNodes>
            0 -1 32 -3.4897152334451675e-02</internalNodes>
          <leafValues>
            8.4911316633224487e-01 -6.8668872117996216e-01</leafValues></_>
        <_>
          <internalNodes>
            0 -1 26 -8.2439236575737596e-04</internalNodes>
          <leafValues>
            -9.0987545251846313e-01 5.7222819328308105e-01</leafValues></_></weakClassifiers></_>
    <!-- stage 4 -->
    <_>
      <maxWeakCount>5</maxWeakCount>
      <stageThreshold>-7.7961450815200806e-01</stageThreshold>
      <weakClassifiers>
        <_>
          <internalNodes>
            0 -1 0 1.9840225577354431e-02</internalNodes>
          <leafValues>
            -6.5687584877014160e-01 9.1457682847976685e-01</leafValues></_>
        <_>
          <internalNodes>
            0 -1 19 -2.4026970565319061e-01</internalNodes>
          <leafValues>
            8.1673657894134521e-01 -7.1220594644546509e-01</leafValues></_>
        <_>
          <internalNodes>
            0 -1 14 -1.8466491252183914e-02</internalNodes>
          <leafValues>
            6.9627183675765991e-01 -6.7025589942932129e-01</leafValues></_>
        <_>
          <internalNodes>
            0 -1 33 4.2865329305641353e-04</internalNodes>
          <leafValues>
            -8.8526374101638794e-01 5.0464266538619995e-01</leafValues></_>
        <_>
          <internalNodes>
            0 -1 36 -1.6553781926631927e-02</internalNodes>
          <leafValues>
            7.5508052110671997e-01 -5.4871582984924316e-01</leafValues></_></weakClassifiers></_>
    <!-- stage 5 -->
    <_>
      <maxWeakCount>4</maxWeakCount>
      <stageThreshold>-1.1614816188812256e+00</stageThreshold>
      <weakClassifiers>
        <_>
          <internalNodes>
            0 -1 39 1.4955101534724236e-02</internalNodes>
          <leafValues>
            -7.2028982639312744e-01 8.7790262699127197e-01</leafValues></_>
        <_>
          <internalNodes>
            0 -1 6 1.6472186893224716e-02</internalNodes>
          <leafValues>
            -6.6584396362304688e-01 7.9926633834838867e-01</leafValues></_>
        <_>
          <internalNodes>
            0 -1 24 2.6799863576889038e-01</internalNodes>
          <leafValues>
            -5.5887836217880249e-01 8.2228124141693115e-01</leafValues></_>
        <_>
          <internalNodes>
            0 -1 4 7.7064828947186470e-03</internalNodes>
          <leafValues>
            -5.2790462970733643e-01 7.8353059291839600e-01</leafValues></_></weakClassifiers></_>
    <!-- stage 6 -->
    <_>
      <maxWeakCount>4</maxWeakCount>
      <stageThreshold>-1.4136266708374023e+00</stageThreshold>
      <weakClassifiers>
        <_>
          <internalNodes>
            0 -1 35 4.7425433993339539e-02</internalNodes>
          <leafValues>
            -7.1207427978515625e-01 8.2306021451950073e-01</leafValues></_>
        <_>
          <internalNodes>
            0 -1 1 4.2130751535296440e-03</internalNodes>
          <leafValues>
            -7.6240664720535278e-01 6.9972866773605347e-01</leafValues></_>
        <_>
          <internalNodes>
            0 -1 21 1.4483620226383209e-01</internalNodes>
          <leafValues>
            -7.1863943338394165e-01 6.3909673690795898e-01</leafValues></_>
        <_>
          <internalNodes>
            0 -1 30 -1.1533411219716072e-02</internalNodes>
          <leafValues>
            6.2175428867340088e-01 -6.8264156579971313e-01</leafValues></_></weakClassifiers></_>
    <!-- stage 7 -->
    <_>
      <maxWeakCount>3</maxWeakCount>
      <stageThreshold>-7.0458048582077026e-01</stageThreshold>
      <weakClassifiers>
        <_>
          <internalNodes>
            0 -1 3 7.9720154404640198e-02</internalNodes>
          <leafValues>
            -8.2352942228317261e-01 7.9543882608413696e-01</leafValues></_>
        <_>
          <internalNodes>
            0 -1 20 -2.3515856266021729e-01</internalNodes>
          <leafValues>
            7.8846663236618042e-01 -6.9930350780487061e-01</leafValues></_>
        <_>
          <internalNodes>
            0 -1 15 2.3709937930107117e-02</internalNodes>
          <leafValues>
            -5.7361871004104614e-01 8.1825244426727295e-01</leafValues></_></weakClassifiers></_>
    <!-- stage 8 -->
    <_>
      <maxWeakCount>5</maxWeakCount>
      <stageThreshold>-9.9918371438980103e-01</stageThreshold>
      <weakClassifiers>
        <_>
          <internalNodes>
            0 -1 34 2.7274824678897858e-02</internalNodes>
          <leafValues>
            -6.3150489330291748e-01 8.5540336370468140e-01</leafValues></_>
        <_>
          <internalNodes>
            0 -1 38 -1.5119662508368492e-02</internalNodes>
          <leafValues>
            7.6584362983703613e-01 -6.4752984046936035e-01</leafValues></_>
        <_>
          <internalNodes>
            0 -1 10 -2.8823971748352051e-02</internalNodes>
          <leafValues>
            7.3029947280883789e-01 -5.8669042587280273e-01</leafValues></_>
        <_>
          <internalNodes>
            0 -1 27 9.4674748834222555e-04</internalNodes>
          <leafValues>
            4.3503877520561218e-01 -9.5200490951538086e-01</leafValues></_>
        <_>
          <internalNodes>
            0 -1 16 -4.8796937335282564e-04</internalNodes>
          <leafValues>
            4.3150269985198975e-01 -8.6826473474502563e-01</leafValues></_></weakClassifiers></_>
    <!-- stage 9 -->
    <_>
      <maxWeakCount>5</maxWeakCount>
      <stageThreshold>-8.0034071207046509e-01</stageThreshold>
      <weakClassifiers>
        <_>
          <internalNodes>
            0 -1 8 -1.9876096397638321e-02</internalNodes>
          <leafValues>
            8.2080709934234619e-01 -6.4269828796386719e-01</leafValues></_>
        <_>
          <internalNodes>
            0 -1 17 2.6281574368476868e-01</internalNodes>
          <leafValues>
            -7.5982570648193359e-01 7.0449900627136230e-01</leafValues></_>
        <_>
          <internalNodes>
            0 -1 39 2.3572262376546860e-02</internalNodes>
          <leafValues>
            -5.9668302536010742e-01 8.0173081159591675e-01</leafValues></_>
        <_>
          <internalNodes>
            0 -1 11 1.4990805648267269e-03</internalNodes>
          <leafValues>
            -7.1533656120300293e-01 5.3340160846710205e-01</leafValues></_>
        <_>
          <internalNodes>
            0 -1 25 -2.5532973930239677e-02</internalNodes>
          <leafValues>
            6.6546475887298584e-01 -5.4735314846038818e-01</leafValues></_></weakClassifiers></_>
    <!-- stage 10 -->
    <_>
      <maxWeakCount>3</maxWeakCount>
      <stageThreshold>-7.3381906747817993e-01</stageThreshold>
      <weakClassifiers>
        <_>
          <internalNodes>
            0 -1 37 2.1875347942113876e-02</internalNodes>
          <leafValues>
            -7.0251715183258057e-01 8.2913470268249512e-01</leafValues></_>
        <_>
          <internalNodes>
            0 -1 7 -9.2650987207889557e-03</internalNodes>
          <leafValues>
            7.4637126922607422e-01 -7.3182320594787598e-01</leafValues></_>
        <_>
          <internalNodes>
            0 -1 5 2.0075134932994843e-02</internalNodes>
          <leafValues>
            -5.6509780883789062e-01 7.0052134990692139e-01</leafValues></_></weakClassifiers></_>
    <!-- stage 11 -->
    <_>
      <maxWeakCount>5</maxWeakCount>
      <stageThreshold>-6.7672854661941528e-01</stageThreshold>
      <weakClassifiers>
        <_>
          <internalNodes>
            0 -1 28 5.9759845025837421e-03</internalNodes>
          <leafValues>
            -7.2949391603469849e-01 7.5275480747222900e-01</leafValues></_>
        <_>
          <internalNodes>
            0 -1 23 1.5239018946886063e-02</internalNodes>
          <leafValues>
            -6.3896811008453369e-01 7.1811032295227051e-01</leafValues></_>
        <_>
          <internalNodes>
            0 -1 31 -2.3478008806705475e-02</internalNodes>
          <leafValues>
            7.5749957561492920e-01 -5.8984452486038208e-01</leafValues></_>
        <_>
          <internalNodes>
            0 -1 2 2.1357756108045578e-02</internalNodes>
          <leafValues>
            -5.7104212045669556e-01 7.3466014862060547e-01</leafValues></_>
        <_>
          <internalNodes>
            0 -1 13 -6.1811683699488640e-03</internalNodes>
          <leafValues>
            5.4691791534423828e-01 -7.6509654521942139e-01</leafValues></_></weakClassifiers></_></stages>
  <features>
    <_>
      <rects>
        <_>
          0 2 2 17 -1.</_>
        <_>
          1 2 1 17 2.</_></rects>
      <tilted>0</tilted></_>
    <_>
      <rects>
        <_>
          0 3 6 1 -1.</_>
        <_>
          2 3 2 1 3.</_></rects>
      <tilted>0</tilted></_>
    <_>
      <rects>
        <_>
          0 4 3 13 -1.</_>
        <_>
          1 4 1 13 3.</_></rects>
      <tilted>0</tilted></_>
    <_>
      <rects>
        <_>
          0 12 18 5 -1.</_>
        <_>
          6 12 6 5 3.</_></rects>
      <tilted>0</tilted></_>
    <_>
      <rects>
        <_>
          0 14 2 4 -1.</_>
        <_>
          1 14 1 4 2.</_></rects>
      <tilted>0</tilted></_>
    <_>
      <rects>
        <_>
          1 0 18 2 -1.</_>
        <_>
          1 1 18 1 2.</_></rects>
      <tilted>0</tilted></_>
    <_>
      <rects>
        <_>
          1 7 4 6 -1.</_>
        <_>
          3 7 2 6 2.</_></rects>
      <tilted>0</tilted></_>
    <_>
      <rects>
        <_>
          2 9 2 8 -1.</_>
        <_>
          2 9 1 4 2.</_>
        <_>
          3 13 1 4 2.</_></rects>
      <tilted>0</tilted></_>
    <_>
      <rects>
        <_>
          2 12 4 6 -1.</_>
        <_>
          2 12 2 3 2.</_>
        <_>
          4 15 2 3 2.</_></rects>
      <tilted>0</tilted></_>
    <_>
      <rects>
        <_>
          2 13 6 6 -1.</_>
        <_>
          2 13 3 3 2.</_>
        <_>
          5 16 3 3 2.</_></rects>
      <tilted>0</tilted></_>
    <_>
      <rects>
        <_>
          3 4 4 8 -1.</_>
        <_>
          3 4 2 4 2.</_>
        <_>
          5 8 2 4 2.</_></rects>
      <tilted>0</tilted></_>
    <_>
      <rects>
        <_>
          3 6 2 2 -1.</_>
        <_>
          4 6 1 2 2.</_></rects>
      <tilted>0</tilted></_>
    <_>
      <rects>
        <_>
          3 6 4 4 -1.</_>
        <_>
          3 6 2 2 2.</_>
        <_>
          5 8 2 2 2.</_></rects>
      <tilted>0</tilted></_>
    <_>
      <rects>
        <_>
          3 14 4 4 -1.</_>
        <_>
          3 14 2 2 2.</_>
        <_>
          5 16 2 2 2.</_></rects>
      <tilted>0</tilted></_>
    <_>
      <rects>
        <_>
          3 14 6 6 -1.</_>
        <_>
          3 14 3 3 2.</_>
        <_>
          6 17 3 3 2.</_></rects>
      <tilted>0</tilted></_>
    <_>
      <rects>
        <_>
          4 1 8 4 -1.</_>
        <_>
          4 1 4 2 2.</_>
        <_>
          8 3 4 2 2.</_></rects>
      <tilted>0</tilted></_>
    <_>
      <rects>
        <_>
          4 6 12 2 -1.</_>
        <_>
          4 6 6 1 2.</_>
        <_>
          10 7 6 1 2.</_></rects>
      <tilted>0</tilted></_>
    <_>
      <rects>
        <_>
          5 0 10 12 -1.</_>
        <_>
          5 4 10 4 3.</_></rects>
      <tilted>0</tilted></_>
    <_>
      <rects>
        <_>
          5 2 10 9 -1.</_>
        <_>
          5 5 10 3 3.</_></rects>
      <tilted>0</tilted></_>
    <_>
      <rects>
        <_>
          5 4 10 12 -1.</_>
        <_>
          5 8 10 4 3.</_></rects>
      <tilted>0</tilted></_>
    <_>
      <rects>
        <_>
          5 6 11 9 -1.</_>
        <_>
          5 9 11 3 3.</_></rects>
      <tilted>0</tilted></_>
    <_>
      <rects>
        <_>
          5 8 6 12 -1.</_>
        <_>
          5 12 6 4 3.</_></rects>
      <tilted>0</tilted></_>
    <_>
      <rects>
        <_>
          5 8 11 12 -1.</_>
        <_>
          5 12 11 4 3.</_></rects>
      <tilted>0</tilted></_>
    <_>
      <rects>
        <_>
          5 11 6 2 -1.</_>
        <_>
          5 12 6 1 2.</_></rects>
      <tilted>0</tilted></_>
    <_>
      <rects>
        <_>
          6 0 9 12 -1.</_>
        <_>
          6 4 9 4 3.</_></rects>
      <tilted>0</tilted></_>
    <_>
      <rects>
        <_>
          6 8 6 3 -1.</_>
        <_>
          6 9 6 1 3.</_></rects>
      <tilted>0</tilted></_>
    <_>
      <rects>
        <_>
          7 6 4 2 -1.</_>
        <_>
          7 7 4 1 2.</_></rects>
      <tilted>0</tilted></_>
    <_>
      <rects>
        <_>
          7 13 4 3 -1.</_>
        <_>
          7 14 4 1 3.</_></rects>
      <tilted>0</tilted></_>
    <_>
      <rects>
        <_>
          7 15 8 3 -1.</_>
        <_>
          7 16 8 1 3.</_></rects>
      <tilted>0</tilted></_>
    <_>
      <rects>
        <_>
          8 4 10 6 -1.</_>
        <_>
          8 4 5 3 2.</_>
        <_>
          13 7 5 3 2.</_></rects>
      <tilted>0</tilted></_>
    <_>
      <rects>
        <_>
          8 8 4 3 -1.</_>
        <_>
          8 9 4 1 3.</_></rects>
      <tilted>0</tilted></_>
    <_>
      <rects>
        <_>
          12 2 6 4 -1.</_>
        <_>
          12 2 3 2 2.</_>
        <_>
          15 4 3 2 2.</_></rects>
      <tilted>0</tilted></_>
    <_>
      <rects>
        <_>
          12 9 6 8 -1.</_>
        <_>
          12 9 3 4 2.</_>
        <_>
          15 13 3 4 2.</_></rects>
      <tilted>0</tilted></_>
    <_>
      <rects>
        <_>
          12 13 2 2 -1.</_>
        <_>
          12 14 2 1 2.</_></rects>
      <tilted>0</tilted></_>
    <_>
      <rects>
        <_>
          12 14 6 6 -1.</_>
        <_>
          12 14 3 3 2.</_>
        <_>
          15 17 3 3 2.</_></rects>
      <tilted>0</tilted></_>
    <_>
      <rects>
        <_>
          13 6 6 9 -1.</_>
        <_>
          15 6 2 9 3.</_></rects>
      <tilted>0</tilted></_>
    <_>
      <rects>
        <_>
          14 2 4 6 -1.</_>
        <_>
          14 2 2 3 2.</_>
        <_>
          16 5 2 3 2.</_></rects>
      <tilted>0</tilted></_>
    <_>
      <rects>
        <_>
          14 9 6 3 -1.</_>
        <_>
          16 9 2 3 3.</_></rects>
      <tilted>0</tilted></_>
    <_>
      <rects>
        <_>
          15 3 4 6 -1.</_>
        <_>
          15 3 2 3 2.</_>
        <_>
          17 6 2 3 2.</_></rects>
      <tilted>0</tilted></_>
    <_>
      <rects>
        <_>
          15 12 4 6 -1.</_>
        <_>
          15 12 2 3 2.</_>
        <_>
          17 15 2 3 2.</_></rects>
      <tilted>0</tilted></_>
    <_>
      <rects>
        <_>
          16 7 4 7 -1.</_>
        <_>
          18 7 2 7 2.</_></rects>
      <tilted>0</tilted></_></features></cascade>
</opencv_storage>
